inline constexpr static float FRONT_LINEAR_WEIGHT[2][8] = {{0.714018, -0.577068, -1.549663, -0.646720, 0.126608, 1.219147, 1.137003, 0.128812},
{-0.921478, 0.403812, 0.290720, 0.210303, 0.510738, 0.541731, -0.382504, 0.004909}};
inline constexpr static float FRONT_LINEAR_BIAS[8] = {-0.508700, -0.003793, 0.471833, 0.014432, -0.118025, -0.084262, 0.012922, -0.000750};
inline constexpr static float TRANSFORMER_ENCODER_LAYERS_0_SELF_ATTN_QUERY_MAT_WEIGHT[8][8] = {{-1.228186, 0.775716, -0.374598, -0.793620, -0.278484, -0.729092, 0.315019, 0.938810},
{0.378811, -0.105362, 0.472776, 0.479544, 0.544948, 0.526782, -0.445839, -0.672235},
{0.056626, -0.335569, 0.059805, 1.027819, 0.386393, 0.821504, 0.163533, -0.569466},
{-0.350864, -0.274071, 0.741536, -0.370565, -0.049329, 0.371315, -0.014772, -0.585316},
{0.461589, -0.180182, 0.907963, 0.568555, 1.010828, 1.397277, -0.005603, -0.536493},
{0.709372, -0.549730, 0.902980, 0.719923, 0.139693, 0.046974, -0.448344, -0.474969},
{0.336238, -0.143355, -0.017769, 0.488849, -0.269470, 0.207543, -0.602309, 0.347127},
{-0.438098, -0.107243, -0.368274, 0.058986, 0.082599, -0.131847, 0.685862, 0.500635}};
inline constexpr static float TRANSFORMER_ENCODER_LAYERS_0_SELF_ATTN_KEY_MAT_WEIGHT[8][8] = {{0.969873, -0.862913, 1.157010, 0.530721, 0.470156, -0.467652, -0.438116, -0.342627},
{-1.272882, -0.022162, -0.763336, 0.131935, -0.597005, -0.673824, 0.932415, 0.181605},
{0.088342, 3.123998, -0.605999, -1.240316, -0.391006, -2.075577, 2.195351, -0.222764},
{0.134820, 1.174363, 0.112156, 0.400858, -0.513672, -1.687594, 1.141533, 0.487420},
{0.157557, -0.444856, -0.295488, -0.950806, -0.459001, 1.908105, -0.955360, 0.471296},
{-0.227761, -0.826425, -0.543369, -1.318766, -0.428080, 1.799207, -1.549278, -0.190263},
{0.242999, -1.742601, 0.187714, -0.301315, 0.395746, 2.560970, -1.603564, 0.063720},
{0.404876, -1.414139, 0.630333, 0.224475, 1.380050, 1.859102, -1.732580, 0.186696}};
inline constexpr static float TRANSFORMER_ENCODER_LAYERS_0_SELF_ATTN_VALUE_MAT_WEIGHT[8][8] = {{-0.891865, -0.143965, -0.331449, -0.649703, -0.673619, -0.735939, -0.132743, 0.056852},
{0.873478, 0.641506, 0.453562, 0.919479, -0.207550, -0.341942, 0.511979, 0.774837},
{0.322494, 1.226819, 0.963135, -0.029640, 0.911282, 1.725661, 1.087320, 1.832535},
{0.235088, 0.472798, -0.034004, 0.856875, 0.819752, -0.043320, 0.782967, 0.902705},
{-0.704051, -0.195531, 0.130734, -0.308436, 0.403337, 0.347192, -0.224266, -0.354518},
{0.092305, -1.061231, -0.372430, -0.492494, -0.571742, -0.663037, -1.324902, 0.104088},
{-0.523418, -1.368694, -0.237946, -1.184596, -0.117618, -0.002628, -1.464413, -0.305462},
{0.014912, -0.753526, -0.120695, -0.057141, -0.207529, -0.046765, -0.706106, -0.568872}};
inline constexpr static float TRANSFORMER_ENCODER_LAYERS_0_SELF_ATTN_O_PROJ_WEIGHT[8][8] = {{-0.506365, 0.698116, 1.854325, 0.705147, 0.717159, -0.160146, -1.702923, -0.169165},
{-0.700372, 0.496505, 0.022667, 0.004335, 0.567983, -0.409246, -0.697814, 0.060042},
{0.001180, 0.111993, -0.347508, -0.095285, 0.150322, -0.165846, 0.030366, -0.021685},
{-0.019772, -0.256004, 0.293998, -0.597670, -1.221297, -0.662364, 0.453088, 1.257242},
{0.289405, 0.377907, -0.487752, 0.061304, -1.563557, -0.592089, 1.052408, 1.187374},
{-0.495215, -0.631832, -0.530708, -0.534270, -1.561959, -0.792620, 1.032855, 0.079336},
{-0.598024, 0.015708, -0.428775, -0.590036, -1.281016, 0.383961, 0.196381, -0.744178},
{0.243433, 1.269180, 0.343461, 1.417194, 0.440754, 1.654325, -1.936656, -2.097323}};
inline constexpr static float TRANSFORMER_ENCODER_LAYERS_0_SELF_ATTN_O_PROJ_BIAS[8] = {-0.447780, 0.291059, 0.164433, 0.252224, -0.121188, 0.076964, -0.108160, 0.179176};
inline constexpr static float TRANSFORMER_ENCODER_LAYERS_0_LINEAR_NET_0_WEIGHT[8][16] = {{0.825783, 2.163968, 0.408652, 0.226757, 1.083505, 0.264691, 1.333472, 4.423309, 0.893675, 1.650725, 0.174898, 0.359167, 0.831257, 0.669387, 0.349063, 1.632139},
{-0.271882, -0.509197, -0.293178, -0.457554, -0.473056, -0.269010, -0.776713, -0.356212, -0.601236, -1.934634, 0.330580, -0.032873, 0.004658, -0.985579, 0.179363, -0.667574},
{-0.502200, -0.408803, 1.002090, 0.323851, -0.324447, 0.004690, -0.917772, -0.322198, -0.141112, -1.399535, -0.126583, 0.094669, -0.333328, -0.032637, -0.777575, -0.428387},
{-0.260712, 0.300118, -0.006009, -0.618918, -0.531786, 0.426397, -0.465277, -0.277473, -0.471878, -1.101807, 0.212329, 0.084838, -0.348902, -0.192829, -0.371268, -1.320958},
{-0.002766, 1.297391, 1.184156, -1.056399, -0.135909, -0.131002, -1.257666, -0.357909, -0.121124, -1.040085, 0.751246, -0.180096, -0.416173, 0.171454, -1.269462, -0.907805},
{-0.737240, 0.011986, -0.724771, -2.166227, -0.653512, 0.028664, -0.973917, -0.491832, -0.974136, -0.309322, 0.693105, -0.353160, -0.714910, -1.166324, -0.317495, -1.876402},
{-0.171424, -1.005854, -1.352526, 1.247130, -0.345938, -0.220811, 1.245756, 0.623039, -0.248170, 0.779294, -0.271663, -0.553625, -0.801759, 0.736111, 0.104779, 0.447806},
{0.525813, -1.795965, -0.231848, 1.821459, 0.460156, 0.064515, 0.824001, 1.666519, 0.496092, -1.183694, -0.983417, -0.447779, 0.852309, 0.228334, -0.302526, 0.467371}};
inline constexpr static float TRANSFORMER_ENCODER_LAYERS_0_LINEAR_NET_0_BIAS[16] = {-1.531778, -1.806938, -1.052966, -0.291672, -1.297181, -0.458499, -0.988331, -1.946888, -0.905208, -2.280013, -0.269427, -0.487798, -1.095772, -1.564913, -0.712649, -1.587422};
inline constexpr static float TRANSFORMER_ENCODER_LAYERS_0_LINEAR_NET_3_WEIGHT[16][8] = {{-0.050595, -0.123372, 0.130557, -0.213100, -0.418233, -0.372959, 0.113616, 0.563534},
{-1.624462, 1.967994, 2.371714, 1.590763, -0.869174, 0.916001, -2.162398, -0.985807},
{0.398800, -0.911728, -0.666176, -0.685969, -0.408610, -0.676272, 0.410224, 0.880143},
{0.413542, -0.129702, -0.568823, -0.514046, 0.383853, -0.410240, 0.184179, 0.406934},
{0.305649, -0.318430, -0.380708, -0.752996, -0.365214, -0.767103, 0.715659, 0.431822},
{0.230998, -0.444855, -0.062013, -0.350302, -0.082377, -0.152289, 0.324418, -1.078781},
{-0.775339, 0.833976, 0.775670, 0.462995, -0.230168, 0.561513, -0.946016, -0.171808},
{-3.098491, 1.786644, 2.273094, 1.479949, 0.525949, 1.098733, -1.602049, -0.548652},
{0.434330, -0.174128, -0.396794, -0.685037, -0.641429, -0.373496, 0.439583, 0.209361},
{-2.024217, 1.431576, 1.619518, 1.122223, 0.275530, 0.890469, -1.055546, -0.719621},
{0.283974, -0.654911, -0.016237, -0.092432, -0.299825, -0.415577, 0.214375, 0.278431},
{0.549747, -0.351957, -0.126452, -0.175154, -0.490172, -0.492533, 0.414186, 0.129369},
{0.178482, -0.286874, -0.309326, -0.150552, -0.273023, -0.389325, 0.430779, 0.296624},
{-0.136606, 0.798880, -0.088395, 0.084621, 0.517278, 0.037405, -0.110927, -0.878161},
{0.469283, -0.847436, -0.708876, -0.477687, -0.283566, -0.601592, 0.473590, 0.301282},
{-1.286023, 1.301580, 1.512782, 1.585441, 0.850212, 1.400077, -1.631140, -1.134445}};
inline constexpr static float TRANSFORMER_ENCODER_LAYERS_0_LINEAR_NET_3_BIAS[8] = {0.129783, 0.212131, 0.211511, 0.099687, 0.245960, 0.097396, -0.451683, -0.198520};
inline constexpr static float FINAL_LINEAR_WEIGHT[8][1] = {{-0.246366},
{0.542137},
{0.428259},
{0.146562},
{-0.031058},
{0.071334},
{-0.549206},
{-0.159001}};
inline constexpr static float FINAL_LINEAR_BIAS[1] = {0.390168};
