inline constexpr static double FRONT_LINEAR_WEIGHT[16] = {2.198362, -0.586823, -0.283236, 1.133890, 2.000759, -0.479567, -1.140660, -0.492142, 1.719853, 0.235744, 4.954648, 4.407577, -1.061552, -3.154441, 0.820958, 0.784096};
inline constexpr static double FRONT_LINEAR_BIAS[8] = {-1.579791, -1.694439, 1.328076, -1.592370, 1.498986, 1.968947, -2.051507, 1.227182};
inline constexpr static double TRANSFORMER_ENCODER_LAYERS_0_SELF_ATTN_QKV_PROJ_WEIGHT[192] = {3.517857, 3.298277, -1.578799, 3.024165, -1.901269, 2.056499, -0.683794, -3.869119, -3.645319, -2.689559, 2.859209, -4.289775, 3.249118, 0.213505, -2.143065, 2.105542, 3.441089, 1.446965, -4.366354, 6.183908, -4.480995, -3.229791, 5.612700, -2.636512, -4.607996, -2.002484, 2.950599, -6.573511, 4.496447, 3.269649, -4.075888, 3.081207, 0.079311, -1.653883, 2.052847, -0.107328, -1.397399, -0.883932, 1.827214, 3.944736, -2.546788, -1.705139, -3.575747, 0.467029, 0.128080, -1.725520, 1.175748, -4.970165, 8.274989, 5.040881, 0.727794, -0.488538, 2.322582, 5.635334, -4.940287, -1.899576, -6.851919, -4.069503, -4.142627, 0.341690, -2.429942, -4.512540, 3.866636, 0.360469, 0.461490, 1.501838, -2.841977, 0.458194, -0.929451, 0.023626, 0.102077, -1.337257, -0.556446, -1.286027, 0.697197, -0.307617, 0.131897, -2.619310, 2.406465, 0.702042, -1.389460, -2.072178, 1.739227, -0.718410, 1.096685, -4.578437, 4.070407, 1.882674, -0.052493, -0.036947, 1.184652, -0.333669, 0.667965, 0.919618, -0.719450, 0.799561, -3.750974, -0.661394, -4.094512, -1.079959, -2.473194, -8.687634, 4.600296, 1.631035, -3.281289, -1.123297, -3.591000, -0.779325, -1.796098, -8.282765, 4.666914, 1.154587, 3.062282, 1.301657, 3.648201, 0.273584, 1.796466, 7.986331, -4.392842, -1.037899, -2.895616, -0.872092, -4.004123, -0.392111, -1.860362, -8.554590, 4.436322, 1.001840, 3.496740, 4.586514, -3.216790, 0.519149, -1.149991, 7.899565, -6.739935, 1.038833, 4.947064, 4.555395, -3.296065, 1.291724, -1.890934, 8.323990, -5.919568, -0.226019, -4.462583, -3.949007, 3.117608, -1.423991, 1.637155, -7.949495, 6.293732, -0.246092, 4.465468, 5.273560, -3.563512, 1.120914, -0.786512, 8.286826, -6.929059, 0.330549, -0.139840, -0.590228, 0.478934, 0.257144, 0.058013, 1.740244, -1.770239, 0.717013, 0.190855, -0.631861, 0.439877, 1.631398, -1.113982, -2.802297, 2.461971, -0.230195, -4.316461, -3.482431, 2.639363, -2.814783, 3.174763, -3.180219, -0.220337, 2.543839, 1.358535, 0.831707, 0.110482, 0.559501, -0.392734, 2.601613, -2.869441, -0.124064};
inline constexpr static double TRANSFORMER_ENCODER_LAYERS_0_SELF_ATTN_O_PROJ_WEIGHT[64] = {0.881179, 1.582183, 3.189916, -1.902284, -0.450118, -2.316321, 2.202298, 0.451016, -2.116605, -0.685281, -1.310101, 1.537141, 2.617875, -5.548851, -1.469635, 4.694096, -0.314222, -1.591665, -1.835493, 0.788973, -0.099975, 2.531881, -1.040749, -1.981664, -0.805706, -1.017981, -1.977437, 0.188394, 0.218467, 2.238320, -1.685951, -0.401178, -0.965527, -1.382225, -2.143771, 1.359609, -0.009372, 0.171069, 1.929481, 0.221917, -1.365644, -2.070167, -3.090734, 1.814906, -0.319551, 2.335421, -1.017344, -0.437560, 2.578134, 3.188031, 3.398624, -3.165424, -0.165404, 1.060254, 0.652081, -2.203345, 2.253571, 2.120075, 3.536017, -1.666519, 0.556780, -2.004089, 2.565411, -0.715862};
inline constexpr static double TRANSFORMER_ENCODER_LAYERS_0_SELF_ATTN_O_PROJ_BIAS[8] = {-4.741915, 1.714804, 4.373765, 4.628665, 4.843520, 5.392029, -3.088873, -6.382037};
inline constexpr static double TRANSFORMER_ENCODER_LAYERS_0_LINEAR_NET_0_WEIGHT[128] = {1.897252, -2.524939, -0.633283, -0.351261, -2.190722, -2.914510, 2.744623, 2.054523, 1.252961, -3.102378, -2.402310, -2.113453, -1.734897, -2.186457, 2.494799, 2.080869, -2.203560, -2.583756, -0.193504, 0.217458, 0.021092, 0.648998, 1.554906, -0.156896, -1.041473, -2.599801, -1.727865, -2.700186, 0.246296, -0.134559, 2.647166, -1.988298, -1.098501, -1.239858, -0.175625, 0.602416, -0.544658, -0.513127, 0.810308, -0.158414, 5.329385, -1.131405, 0.327252, 1.391270, -1.059041, -5.990890, 1.842652, 4.796747, -1.129933, -2.583075, -2.617089, -2.256456, 0.174653, 0.803668, 2.594216, -0.796753, -1.885714, -2.906809, -0.785395, -2.093456, 0.586811, 0.016634, 2.855153, 0.747739, 1.019115, -3.982045, 0.301193, -0.611669, -1.443321, -2.019690, 4.363309, 0.902553, 3.279315, -1.742582, -0.500742, -0.819782, 0.539864, -3.314482, 2.844723, 6.199833, 2.435411, -2.341240, -0.067058, -0.141413, -2.041448, -2.808813, 2.961429, 1.605791, 1.709812, -2.666100, -2.288741, -2.063490, -1.501651, -0.989518, 2.102416, 2.010052, -0.777111, -2.363098, -0.323260, -0.249505, 0.843386, 1.644809, 1.475143, 0.974616, -1.563778, -2.676041, -1.356669, -1.480312, 3.122857, 1.280898, 2.850483, -0.885835, -1.380701, -1.963329, 0.577519, 0.688427, -0.808283, 1.095542, 1.692561, 0.196801, -1.622945, -3.302348, -0.499298, -0.802013, -0.668079, 1.651299, 3.608922, -0.110314};
inline constexpr static double TRANSFORMER_ENCODER_LAYERS_0_LINEAR_NET_0_BIAS[16] = {-5.402452, -2.610063, -1.251479, -2.391652, -2.806731, -2.244807, -2.212635, -1.594348, -3.945606, -0.692073, -5.241441, -2.328045, -1.487138, -7.216136, -0.390602, -3.616507};
inline constexpr static double TRANSFORMER_ENCODER_LAYERS_0_LINEAR_NET_3_WEIGHT[128] = {0.702138, 1.322981, -0.699590, -0.217521, 0.519680, -3.069462, 0.194064, 0.766226, -0.899906, -2.700650, 2.019687, -1.683944, -0.682552, -0.780061, 0.614978, 0.362233, 0.839021, -0.466061, 0.078290, 1.608513, 0.687648, 2.304423, 1.625721, 1.971999, 3.603714, -0.025833, 0.912868, 1.053615, 0.436574, 2.542787, -0.440833, -0.209140, -2.109730, 1.243639, -0.989949, 1.394144, 0.189373, 0.006726, 1.349634, 1.051782, -1.676196, 1.813174, -2.976987, -0.847394, -1.653994, -0.921268, 1.072332, 1.433479, 0.758035, -0.404920, 1.552014, -1.588074, 0.398230, 0.876069, -1.109604, 0.025488, 0.519488, -0.097352, -0.052912, 1.705534, 0.996713, 1.056706, -0.536938, 0.533508, 0.983684, 0.487800, -2.864362, 1.005920, -0.639580, -6.053891, -0.037469, 0.539564, 0.233501, -2.044597, 1.373100, -3.035320, -0.539765, -1.469825, 0.969120, 1.283836, 1.585181, -0.530740, 1.183587, -0.818513, -0.156646, 0.095993, -0.363993, -0.181452, 1.382916, -0.338967, 0.551147, 1.050874, 1.593509, 1.554832, -0.958485, 0.083159, 2.573506, -0.990419, 1.439460, -1.455644, 0.142383, 0.202709, -1.727331, -1.460963, 0.955876, -2.241183, 2.488448, -2.661420, 0.866538, 0.809655, -0.602937, -1.058445, -2.961257, 0.564075, -0.806597, 1.477283, -1.134804, 1.549772, 1.108595, -0.096591, -2.434345, -0.150220, -2.034528, -0.937982, -1.550047, -0.794947, 1.205284, -0.237545};
inline constexpr static double TRANSFORMER_ENCODER_LAYERS_0_LINEAR_NET_3_BIAS[8] = {1.084140, 0.679676, -2.591269, -0.699007, -2.201972, -1.249335, 1.998005, 0.290516};
inline constexpr static double FINAL_LINEAR_WEIGHT[8] = {1.029450, -0.883338, -0.002674, -0.834951, 2.630275, -0.511453, 0.324448, -0.663832};
inline constexpr static double FINAL_LINEAR_BIAS[1] = {-2.987527};
