inline constexpr static double FRONT_LINEAR_WEIGHT[2][8] = {{0.166543, -0.469744, -1.848786, -2.118732, 1.197839, 1.238903, 0.757429, 0.655707},
{-1.833854, 1.835682, 0.424221, -0.739969, 0.231237, -0.060435, -0.829511, -0.280003}};
inline constexpr static double FRONT_LINEAR_BIAS[8] = {0.781815, -0.706219, 0.555445, 0.970332, -0.372027, -0.529653, 0.110125, -0.254336};
inline constexpr static double TRANSFORMER_ENCODER_LAYERS_0_SELF_ATTN_QUERY_MAT_WEIGHT[8][8] = {{-3.647287, 2.635840, 2.782022, 1.774368, 1.437764, -2.434627, 1.450669, 2.387300},
{-0.332369, -3.149960, -4.065069, -6.326102, -3.590293, 1.338211, -2.730334, -0.432852},
{0.999215, -2.827194, -3.217616, -2.947930, -3.187195, 1.881602, -2.448705, -1.520570},
{-4.012096, 1.568002, 1.477367, 0.183775, 0.835264, -1.959048, 1.653489, 1.945680},
{3.959593, -1.961488, -0.595230, -0.873833, -0.617156, 2.455945, -1.750938, -2.428269},
{-1.722528, 2.835456, 3.797939, 3.890589, 3.557747, -2.756669, 2.822835, 1.669177},
{3.237955, 0.494840, 1.045259, 2.740244, 0.016775, 1.823958, -1.382787, -2.331465},
{-8.614235, 3.511314, 1.227444, -0.092012, 0.885410, -2.305288, 2.638575, 2.078526}};
inline constexpr static double TRANSFORMER_ENCODER_LAYERS_0_SELF_ATTN_KEY_MAT_WEIGHT[8][8] = {{11.112482, -3.664739, 1.105165, 5.144325, 5.674232, 8.265484, -4.556527, -8.643991},
{-14.726192, 6.300003, 0.781177, -8.603857, -4.121492, -8.791214, 5.314734, 9.957128},
{-2.526320, 3.386984, 2.967808, 2.100788, 1.704509, -1.610474, 1.643153, 1.888632},
{-1.590681, 2.840193, 4.204331, 2.242918, 1.359015, -1.542617, 0.796772, 1.699131},
{2.413747, -2.542951, -3.668208, -2.868039, -1.488718, 1.969902, -1.144576, -0.705912},
{2.219439, -2.656025, -3.792839, -3.093062, -1.528051, 1.818616, -1.515504, -1.444319},
{3.979151, -3.715575, -2.828361, 0.658765, -0.558482, 2.917061, -2.107450, -2.066764},
{1.506085, -2.457377, -2.068178, -0.743588, -0.194205, 1.678804, -1.709080, -1.398611}};
inline constexpr static double TRANSFORMER_ENCODER_LAYERS_0_SELF_ATTN_VALUE_MAT_WEIGHT[8][8] = {{-0.137567, 0.562642, 0.235826, 0.057640, 0.296170, 0.314276, 0.223361, -0.676293},
{0.497844, 0.462425, 0.124568, 0.647918, -0.820787, -0.218220, 0.841341, 0.077474},
{-1.512564, 0.613303, 0.847788, -0.580743, 0.024986, 0.467262, -0.024059, 0.126454},
{-0.713243, 0.157043, -0.120233, 0.230736, 0.170278, -0.195839, 0.217782, 0.124860},
{-0.141563, -0.226553, 0.075355, 0.249266, 0.788562, 0.086379, -0.081002, -0.266996},
{1.135532, -0.027968, 0.081153, 0.260518, -0.312220, -0.069473, 0.148731, 0.362933},
{-0.172935, -0.354110, 0.539306, -0.813884, 0.258553, 0.210277, -0.510715, 0.731706},
{0.020843, -0.380524, 0.313596, -0.096650, -0.139192, 0.157280, -0.311852, 0.055095}};
inline constexpr static double TRANSFORMER_ENCODER_LAYERS_0_SELF_ATTN_O_PROJ_WEIGHT[8][8] = {{0.929918, 0.648732, 0.635930, 0.515560, -0.110627, -1.070427, -0.398955, -0.299630},
{-0.396345, -0.180674, -0.283790, -0.634210, -0.115967, -0.304835, -0.078026, 0.993556},
{0.317320, 0.087889, -0.244267, -0.372651, -0.022796, 0.349177, 0.174203, 0.276069},
{0.353472, -0.013913, 0.073182, -0.303714, 0.052182, 0.149310, -0.153430, -0.039380},
{0.633112, 0.440332, -0.827170, 0.170771, 0.004473, 0.512074, -0.078290, -0.000658},
{0.067403, -0.052548, -0.301397, 0.037181, -0.197536, 0.337151, -0.428021, -0.328855},
{-0.273549, -0.029753, -0.020162, -0.288185, -0.791945, 0.137759, -0.105263, 0.370729},
{-0.029574, 0.037474, -0.260168, -0.015252, -0.034084, -0.192297, -0.180934, -0.079903}};
inline constexpr static double TRANSFORMER_ENCODER_LAYERS_0_SELF_ATTN_O_PROJ_BIAS[8] = {-0.358047, 0.289080, -0.024608, -0.040337, 0.167154, 0.259249, -0.082194, -0.483626};
inline constexpr static double TRANSFORMER_ENCODER_LAYERS_0_LINEAR_NET_0_WEIGHT[8][16] = {{0.071687, 0.901089, -0.261393, 0.807540, 0.229260, 1.389015, 1.062204, 0.498787, 0.513793, 0.491121, 0.417269, 0.213184, 0.885604, -0.078445, 0.404387, 0.426852},
{0.451966, -1.296571, -2.099689, -0.772665, -0.045236, -0.587614, -0.603699, -0.960206, -0.654101, -2.905365, 0.355960, -0.532095, -1.435717, -0.202119, -1.202968, -0.236263},
{0.040043, -0.085116, -0.405258, -0.310862, 0.195046, -0.088670, -0.265131, 0.328213, -0.405595, -0.203609, 0.108857, -0.094953, 0.033682, -0.122276, 0.934249, 0.494570},
{0.590831, 0.264639, -0.148629, 0.039875, -0.237213, 0.145650, 0.354323, 0.864864, 0.561537, 0.021501, 0.294259, 0.009495, 0.367224, 0.210140, 0.222295, -0.007078},
{-0.897319, -0.436838, -0.710474, -0.828516, 0.182887, -0.826891, -0.745086, -0.767074, -1.289165, -1.458300, -0.803859, -0.668487, -0.488729, -0.455529, -1.356821, -0.976366},
{0.487809, -0.312767, 0.647268, -0.584092, -0.181365, -1.187917, -0.443432, 0.138399, -0.844524, -0.511516, 0.484805, -0.186099, -1.441675, -0.160432, 0.246587, 0.038576},
{-0.255373, 0.075226, 0.303269, 0.270985, 0.205349, -0.316129, 0.244005, -0.952605, 0.579199, 0.588429, 0.348815, -0.053926, -0.194355, -0.389112, -0.339985, -0.167640},
{0.614798, 0.544571, 0.668371, 0.189761, 0.355625, 1.435513, 0.956630, 1.889791, 1.490021, 1.220945, 0.685279, 0.422993, 0.847032, -0.123642, 1.147845, 0.540859}};
inline constexpr static double TRANSFORMER_ENCODER_LAYERS_0_LINEAR_NET_0_BIAS[16] = {-1.098509, -1.157166, -0.433868, -0.485080, -0.101730, -1.930907, -0.583238, -1.910701, -2.036847, -1.144307, -1.060443, -0.854868, -1.424264, -0.653969, -1.859642, -0.562700};
inline constexpr static double TRANSFORMER_ENCODER_LAYERS_0_LINEAR_NET_3_WEIGHT[16][8] = {{0.541491, 0.298863, 0.518523, 0.469746, 0.420516, 0.283135, -0.510366, -0.231268},
{-0.319301, 0.215563, 0.493499, 0.236164, 0.176546, 0.344956, -0.470296, -0.142725},
{0.286535, -0.215399, 0.004549, 0.326689, -0.368345, -0.364993, 0.062688, 0.221689},
{-0.531786, 0.298062, -0.097930, -0.017503, 0.283389, -0.025053, -0.114525, 0.029958},
{-0.058420, -0.039843, 0.136031, -0.109111, -0.023718, -0.420152, 0.440380, 0.210250},
{0.576180, -0.848066, 0.796382, 0.443292, -0.493524, -0.492101, 0.754085, 0.632390},
{-1.424130, 0.294961, -0.269338, -0.673546, 0.178749, 0.680299, -0.045578, -0.128202},
{0.231452, -0.486149, 0.408058, 0.539522, -0.297157, -0.480486, -0.604630, -0.319928},
{0.730958, -1.206979, 0.495325, 0.405271, -1.721218, -1.622736, 0.772163, 0.242229},
{-0.744781, 0.510157, 0.142623, -0.197087, 0.664212, 2.017671, -0.338267, -0.472279},
{-0.419856, 0.455219, 0.831968, 0.788037, 0.791152, 0.437786, -0.366002, -0.562977},
{-0.209887, 0.141436, 0.343476, 0.202784, -0.024884, 0.242697, -0.048508, -0.258635},
{-0.098313, 0.486033, 0.622668, 1.150154, 0.479991, 0.238450, -0.426528, -0.508010},
{0.226673, 0.381948, 0.178175, 0.312627, 0.356400, 0.297373, -0.404954, -0.340958},
{0.156087, -0.500604, -0.201700, 0.417131, -0.671607, -0.829702, 0.478362, 0.315693},
{-0.114571, -0.565662, -0.186860, -0.077540, -0.352861, 0.086105, 0.182989, 0.476109}};
inline constexpr static double TRANSFORMER_ENCODER_LAYERS_0_LINEAR_NET_3_BIAS[8] = {0.149786, -0.415702, -0.125048, 0.147629, -0.260171, -0.139196, 0.156255, 0.681226};
inline constexpr static double FINAL_LINEAR_WEIGHT[8][1] = {{-0.522501},
{0.064059},
{-0.042534},
{-0.467238},
{0.079486},
{0.188179},
{-0.012917},
{0.008942}};
inline constexpr static double FINAL_LINEAR_BIAS[1] = {-0.161198};
