inline constexpr static double FRONT_LINEAR_WEIGHT[2][8] = {
    {1.700180, -0.732519, -1.742008, 0.038340, 1.574240, 0.035039, -0.092361,
     -0.488069},
    {-1.211910, 0.388945, 0.657670, 0.019862, 0.088459, 0.307295, -0.705917,
     0.122375}};
inline constexpr static double FRONT_LINEAR_BIAS[8] = {
    0.335630,  -0.063844, 0.433845, -0.141018,
    -0.146177, -0.219859, 0.462999, 0.016316};
inline constexpr static double
    TRANSFORMER_ENCODER_LAYERS_0_SELF_ATTN_QUERY_MAT_WEIGHT[8][8] = {
        {1.666792, -3.174307, 1.622711, -3.277117, -0.121216, -0.442626,
         -0.342510, -0.104376},
        {0.357451, 0.849838, -0.227767, 0.599516, -0.046366, -0.130689,
         -0.344492, -0.141602},
        {-1.259912, 0.369892, -0.895561, 3.895772, -0.116294, 0.312931,
         0.154279, -0.225180},
        {-0.853680, -0.073426, -0.225174, 0.286724, -0.225745, 0.228862,
         0.064069, -0.306288},
        {0.818002, 0.834224, 0.986178, -0.621650, 0.255558, 0.521336, -0.312585,
         -0.560022},
        {-0.272671, 0.558980, -0.053292, 0.242411, -0.208576, -0.417667,
         -0.431637, -0.359499},
        {0.461059, -0.165181, 0.359328, -0.892092, -0.344019, 0.005324,
         -0.507368, 0.374299},
        {-0.609975, -0.678354, -0.314978, -0.576349, 0.138923, -0.180835,
         0.600165, 0.134217}};
inline constexpr static double
    TRANSFORMER_ENCODER_LAYERS_0_SELF_ATTN_KEY_MAT_WEIGHT[8][8] = {
        {0.899794, 1.049295, 1.671130, 3.016483, -1.511547, -1.319615,
         -1.811052, -2.823490},
        {-0.340937, -0.619187, 0.068636, -0.724019, 0.502137, -0.270301,
         0.237585, 1.145491},
        {-0.940574, -1.870357, -0.970136, -1.305263, 1.549250, 2.851676,
         0.382732, 1.506664},
        {-0.257034, -0.775090, -0.622176, 0.500990, 0.850003, 0.699180,
         0.345349, -0.130644},
        {1.126665, 0.481626, 0.918886, -2.966028, -0.658105, 0.254056,
         -1.023720, 3.097637},
        {0.124403, 0.113105, -0.793559, -0.455953, -0.136874, 0.066284,
         0.044020, -0.466895},
        {1.058150, -0.359947, 0.607114, 1.065013, -0.658387, 0.337310,
         -0.677005, -0.366534},
        {0.225776, 0.338029, -0.038926, 1.220432, 0.198905, -0.285134,
         -0.265616, -1.118298}};
inline constexpr static double
    TRANSFORMER_ENCODER_LAYERS_0_SELF_ATTN_VALUE_MAT_WEIGHT[8][8] = {
        {-0.827377, 0.532235, 0.799830, -1.287989, 1.188960, -0.368942,
         1.232370, -1.505402},
        {0.525436, 0.191337, 0.228463, 0.630014, -0.421121, 0.231403, -0.547931,
         0.269096},
        {1.062962, 1.590964, -0.261282, -2.530445, -0.340111, 0.330318,
         -0.673879, 1.428482},
        {-0.293449, -0.000978, 0.007567, -0.293308, -0.212772, -0.043368,
         -0.320984, -0.245862},
        {-0.385737, -0.619125, 0.635569, -0.390553, 1.893647, -0.844036,
         0.162174, -0.185679},
        {0.001829, -0.333336, 0.685813, -0.106586, -0.067523, -0.006434,
         0.061289, -0.212762},
        {0.253179, 1.024732, -0.268177, -0.150688, 0.217995, 0.619792, 0.097532,
         0.495313},
        {0.326531, -0.119274, -0.094219, 0.951427, -0.220124, 0.640560,
         -0.330161, 0.179020}};
inline constexpr static double
    TRANSFORMER_ENCODER_LAYERS_0_SELF_ATTN_O_PROJ_WEIGHT[8][8] = {
        {0.479006, -0.081998, 0.341253, -0.128063, -1.581795, -0.876172,
         -0.375603, 0.128568},
        {-1.341415, 0.914464, 0.201465, -1.554748, 0.351025, -0.781755,
         -0.209024, 0.479221},
        {1.727155, 0.072291, -0.371738, 1.037864, 1.129765, -0.141312, 0.005484,
         -0.618292},
        {-1.427538, -0.229118, 0.252147, -1.271855, -1.886972, -0.057717,
         0.498920, 1.725485},
        {0.535365, -0.125917, -0.896585, 0.113469, -0.522341, 0.786774,
         0.553175, 0.862430},
        {1.194805, -0.146395, -0.593521, 1.502790, -0.313131, 0.051450,
         -0.214942, -1.229595},
        {-1.395977, -0.050758, 0.107704, -0.952596, -1.028818, -0.740642,
         -0.201314, 0.608336},
        {1.554102, 0.333017, -0.748957, 1.626755, 2.300508, 0.730700, -0.648665,
         -1.113946}};
inline constexpr static double
    TRANSFORMER_ENCODER_LAYERS_0_SELF_ATTN_O_PROJ_BIAS[8] = {
        0.353664,  0.038986,  -0.324349, 0.780013,
        -0.514490, -0.008281, -0.122208, -0.151781};
inline constexpr static double
    TRANSFORMER_ENCODER_LAYERS_0_LINEAR_NET_0_WEIGHT[8][16] = {
        {-0.164746, -0.113160, -0.462649, -2.320106, 0.696866, 0.845640,
         -2.373139, -1.387959, 0.998636, -0.291447, -1.619449, -0.425574,
         -0.206108, -0.207746, 0.166953, 1.235297},
        {-0.771190, -0.639163, 0.505240, 0.625034, 1.541182, 0.783664,
         -0.465094, 0.076299, -0.451280, 0.361705, 0.106652, -0.833191,
         -0.274185, 1.002430, -0.133907, -0.724076},
        {-0.482664, -0.837352, 0.484248, 0.393530, 1.020649, 0.391494, 0.752563,
         -0.132606, 0.087025, -0.041429, -0.749776, -1.057558, -0.557270,
         -0.618328, -0.354768, -0.192962},
        {-0.253767, -0.447974, 0.310110, -2.328528, -3.092885, 0.004460,
         -1.943452, 0.065875, -1.054346, -1.020479, -0.737520, -1.827781,
         -0.949226, -1.082594, 0.403899, 0.292547},
        {0.080952, 0.321891, -0.219566, -0.092340, -0.682009, -0.325159,
         -2.828018, -1.639591, -1.767371, -0.252100, -0.108673, -0.994598,
         0.238297, -0.559135, -2.684663, -1.630727},
        {0.608227, 0.456690, 0.820123, -0.184330, 1.595575, 0.085411, -1.810969,
         1.342349, -0.699639, 0.362952, 1.548830, -0.311849, 0.848314,
         -0.188478, 0.339849, 0.225027},
        {0.905225, -0.492031, -0.117027, -1.168881, -0.919604, -1.155446,
         -0.502088, 0.338713, -0.264634, -0.414818, -2.342360, 0.754419,
         -0.251463, -0.871758, 0.058764, 0.813494},
        {0.046565, 0.460084, 0.084864, 0.007478, 0.588474, 0.797914, 1.407064,
         2.173929, 0.739486, 1.346148, -0.300905, 1.702121, 0.899920, 0.178285,
         1.025975, 2.151555}};
inline constexpr static double
    TRANSFORMER_ENCODER_LAYERS_0_LINEAR_NET_0_BIAS[16] = {
        -1.771093, -1.344808, 0.245212,  -3.145954, -5.438622, -3.465747,
        -0.593239, -1.986813, -0.212854, -3.337518, -4.520616, -3.219630,
        -1.717262, -2.061487, 1.095267,  -1.386812};
inline constexpr static double
    TRANSFORMER_ENCODER_LAYERS_0_LINEAR_NET_3_WEIGHT[16][8] = {
        {-1.060429, 1.145537, 1.488547, 0.476839, -0.195335, -0.078748,
         0.629210, 0.431651},
        {-0.139218, 0.135268, 0.462920, 0.448589, -0.476727, 0.315269,
         -0.851066, 0.082961},
        {-0.007397, -0.288360, -0.175296, -0.570072, -0.302214, -0.727717,
         0.284357, 0.351085},
        {-2.924461, 0.734849, 0.868706, 0.001514, -0.141001, 0.814164,
         -0.373408, -0.034866},
        {-0.332438, -1.780170, 0.599819, -2.787730, 0.335959, 1.913466,
         1.617279, -0.624619},
        {-0.550403, -1.485360, 0.940352, -0.321840, 0.563095, -0.304100,
         -0.435621, -0.517145},
        {0.562586, 0.417238, -0.088837, 0.198581, 2.127645, 0.333650, 0.301957,
         -1.134091},
        {0.766236, 0.479185, 0.489982, 0.302144, 2.140383, -0.687896, -0.682734,
         -1.063640},
        {-0.237499, 0.406810, -0.327413, -0.015066, -1.329537, 0.176902,
         0.025960, 0.594715},
        {-1.478709, -0.132677, 0.381164, 0.271078, -0.267306, 0.443758,
         -0.021697, -0.379993},
        {0.617821, 0.142327, -1.046827, 0.441673, 0.287934, -0.102214, 0.252990,
         -1.081657},
        {0.303504, -1.226751, -0.245473, 0.165944, -0.488342, -0.850093,
         0.018366, 0.333650},
        {-0.109850, -0.213045, -0.127320, 0.268048, -0.009747, 0.142957,
         -0.111535, -0.081736},
        {-0.353936, -0.195336, -0.366224, 0.029159, -0.504483, 0.306895,
         -0.023725, 0.334775},
        {-0.512404, -0.433687, -0.178259, -0.267116, -1.643990, 0.158333,
         0.524465, 1.018351},
        {0.478476, 0.441997, -0.280833, -0.341639, -1.625417, 0.787349,
         0.429448, 1.266624}};
inline constexpr static double
    TRANSFORMER_ENCODER_LAYERS_0_LINEAR_NET_3_BIAS[8] = {
        -0.357072, 0.001922, -0.095627, -0.493527,
        -0.408748, 0.417275, -0.015018, 0.374613};
inline constexpr static double FINAL_LINEAR_WEIGHT[8][1] = {
    {-0.176207}, {0.004632}, {0.002137}, {-0.059086},
    {-0.220584}, {0.027832}, {0.043440}, {0.022662}};
inline constexpr static double FINAL_LINEAR_BIAS[1] = {0.086290};
